{
  "admissible_pos": [
    {
      "dv_key": "1:0:0",
      "dv": [
        1,
        0,
        0
      ]
    },
    {
      "dv_key": "-1:0:0",
      "dv": [
        -1,
        0,
        0
      ]
    },
    {
      "dv_key": "0:1:0",
      "dv": [
        0,
        1,
        0
      ]
    },
    {
      "dv_key": "0:-1:0",
      "dv": [
        0,
        -1,
        0
      ]
    },
    {
      "dv_key": "0:0:1",
      "dv": [
        0,
        0,
        1
      ]
    },
    {
      "dv_key": "0:0:-1",
      "dv": [
        0,
        0,
        -1
      ]
    }
  ],
  "oppo": {
    "-1:0:0": "1:0:0",
    "1:0:0": "-1:0:0",
    "0:-1:0": "0:1:0",
    "0:1:0": "0:-1:0",
    "0:0:-1": "0:0:1",
    "0:0:1": "0:0:-1"
  },
  "weight": {
    ".": 1,
    "s": 1,
    "p": 1,
    "b": 1
  },
  "pdf": {
    ".": 0.25,
    "s": 0.25,
    "p": 0.25,
    "b": 0.25
  },
  "cdf": [
    {
      "tile_code": ".",
      "s": 0.25
    },
    {
      "tile_code": "s",
      "s": 0.5
    },
    {
      "tile_code": "p",
      "s": 0.75
    },
    {
      "tile_code": "b",
      "s": 1.01
    }
  ],
  "endpoint": {
    ".": [],
    "s": [
      [
        -0.125,
        0.5,
        -0.125
      ],
      [
        0.125,
        0.5,
        -0.125
      ],
      [
        -0.125,
        0.5,
        0.125
      ],
      [
        0.125,
        0.5,
        0.125
      ]
    ],
    "p": [
      [
        -0.125,
        -0.5,
        -0.125
      ],
      [
        0.125,
        -0.5,
        -0.125
      ],
      [
        -0.125,
        -0.5,
        0.125
      ],
      [
        0.125,
        -0.5,
        0.125
      ],
      [
        -0.125,
        0.5,
        -0.125
      ],
      [
        0.125,
        0.5,
        -0.125
      ],
      [
        -0.125,
        0.5,
        0.125
      ],
      [
        0.125,
        0.5,
        0.125
      ]
    ],
    "b": [
      [
        -0.125,
        -0.5,
        -0.125
      ],
      [
        0.125,
        -0.5,
        -0.125
      ],
      [
        -0.125,
        -0.5,
        0.125
      ],
      [
        0.125,
        -0.5,
        0.125
      ],
      [
        0.5,
        0.125,
        -0.125
      ],
      [
        0.5,
        -0.125,
        -0.125
      ],
      [
        0.5,
        0.125,
        0.125
      ],
      [
        0.5,
        -0.125,
        0.125
      ]
    ]
  },
  ".": [],
  "s": [
    -0.125,
    0.5,
    -0.125,
    0.125,
    0.5,
    -0.125,
    -0.125,
    -0.375,
    -0.125,
    0.125,
    0.5,
    -0.125,
    0.125,
    -0.375,
    -0.125,
    -0.125,
    -0.375,
    -0.125,
    -0.125,
    0.5,
    0.125,
    -0.125,
    -0.375,
    0.125,
    0.125,
    0.5,
    0.125,
    0.125,
    0.5,
    0.125,
    -0.125,
    -0.375,
    0.125,
    0.125,
    -0.375,
    0.125,
    -0.125,
    0.5,
    -0.125,
    -0.125,
    -0.375,
    -0.125,
    -0.125,
    -0.375,
    0.125,
    -0.125,
    0.5,
    -0.125,
    -0.125,
    -0.375,
    0.125,
    -0.125,
    0.5,
    0.125,
    0.125,
    0.5,
    -0.125,
    0.125,
    -0.375,
    0.125,
    0.125,
    -0.375,
    -0.125,
    0.125,
    0.5,
    -0.125,
    0.125,
    0.5,
    0.125,
    0.125,
    -0.375,
    0.125,
    -0.125,
    0.5,
    -0.125,
    -0.125,
    0.5,
    0.125,
    0.125,
    0.5,
    -0.125,
    0.125,
    0.5,
    -0.125,
    -0.125,
    0.5,
    0.125,
    0.125,
    0.5,
    0.125,
    -0.125,
    -0.375,
    -0.125,
    0.125,
    -0.375,
    0.125,
    -0.125,
    -0.375,
    0.125,
    0.125,
    -0.375,
    -0.125,
    0.125,
    -0.375,
    0.125,
    -0.125,
    -0.375,
    -0.125,
    -0.21875,
    -0.375,
    -0.21875,
    0.21875,
    -0.375,
    -0.21875,
    -0.21875,
    -0.5,
    -0.21875,
    0.21875,
    -0.375,
    -0.21875,
    0.21875,
    -0.5,
    -0.21875,
    -0.21875,
    -0.5,
    -0.21875,
    -0.21875,
    -0.375,
    0.21875,
    -0.21875,
    -0.5,
    0.21875,
    0.21875,
    -0.375,
    0.21875,
    0.21875,
    -0.375,
    0.21875,
    -0.21875,
    -0.5,
    0.21875,
    0.21875,
    -0.5,
    0.21875,
    -0.21875,
    -0.375,
    -0.21875,
    -0.21875,
    -0.5,
    -0.21875,
    -0.21875,
    -0.5,
    0.21875,
    -0.21875,
    -0.375,
    -0.21875,
    -0.21875,
    -0.5,
    0.21875,
    -0.21875,
    -0.375,
    0.21875,
    0.21875,
    -0.375,
    -0.21875,
    0.21875,
    -0.5,
    0.21875,
    0.21875,
    -0.5,
    -0.21875,
    0.21875,
    -0.375,
    -0.21875,
    0.21875,
    -0.375,
    0.21875,
    0.21875,
    -0.5,
    0.21875,
    -0.21875,
    -0.375,
    -0.21875,
    -0.21875,
    -0.375,
    0.21875,
    0.21875,
    -0.375,
    -0.21875,
    0.21875,
    -0.375,
    -0.21875,
    -0.21875,
    -0.375,
    0.21875,
    0.21875,
    -0.375,
    0.21875,
    -0.21875,
    -0.5,
    -0.21875,
    0.21875,
    -0.5,
    0.21875,
    -0.21875,
    -0.5,
    0.21875,
    0.21875,
    -0.5,
    -0.21875,
    0.21875,
    -0.5,
    0.21875,
    -0.21875,
    -0.5,
    -0.21875
  ],
  "p": [
    -0.125,
    0.5,
    -0.125,
    0.125,
    0.5,
    -0.125,
    -0.125,
    -0.5,
    -0.125,
    0.125,
    0.5,
    -0.125,
    0.125,
    -0.5,
    -0.125,
    -0.125,
    -0.5,
    -0.125,
    -0.125,
    0.5,
    0.125,
    -0.125,
    -0.5,
    0.125,
    0.125,
    0.5,
    0.125,
    0.125,
    0.5,
    0.125,
    -0.125,
    -0.5,
    0.125,
    0.125,
    -0.5,
    0.125,
    -0.125,
    0.5,
    -0.125,
    -0.125,
    -0.5,
    -0.125,
    -0.125,
    -0.5,
    0.125,
    -0.125,
    0.5,
    -0.125,
    -0.125,
    -0.5,
    0.125,
    -0.125,
    0.5,
    0.125,
    0.125,
    0.5,
    -0.125,
    0.125,
    -0.5,
    0.125,
    0.125,
    -0.5,
    -0.125,
    0.125,
    0.5,
    -0.125,
    0.125,
    0.5,
    0.125,
    0.125,
    -0.5,
    0.125,
    -0.125,
    0.5,
    -0.125,
    -0.125,
    0.5,
    0.125,
    0.125,
    0.5,
    -0.125,
    0.125,
    0.5,
    -0.125,
    -0.125,
    0.5,
    0.125,
    0.125,
    0.5,
    0.125,
    -0.125,
    -0.5,
    -0.125,
    0.125,
    -0.5,
    0.125,
    -0.125,
    -0.5,
    0.125,
    0.125,
    -0.5,
    -0.125,
    0.125,
    -0.5,
    0.125,
    -0.125,
    -0.5,
    -0.125
  ],
  "b": [
    -0.125,
    -0.5,
    -0.125,
    0.125,
    -0.125,
    -0.125,
    0.125,
    -0.5,
    -0.125,
    -0.125,
    -0.5,
    -0.125,
    -0.125,
    -0.125,
    -0.125,
    0.125,
    -0.125,
    -0.125,
    -0.125,
    -0.125,
    -0.125,
    0.125,
    0.125,
    -0.125,
    0.125,
    -0.125,
    -0.125,
    0.5,
    -0.125,
    -0.125,
    0.125,
    0.125,
    -0.125,
    0.5,
    0.125,
    -0.125,
    0.5,
    -0.125,
    -0.125,
    0.125,
    -0.125,
    -0.125,
    0.125,
    0.125,
    -0.125,
    -0.125,
    -0.5,
    0.125,
    0.125,
    -0.5,
    0.125,
    0.125,
    -0.125,
    0.125,
    -0.125,
    -0.5,
    0.125,
    0.125,
    -0.125,
    0.125,
    -0.125,
    -0.125,
    0.125,
    -0.125,
    -0.125,
    0.125,
    0.125,
    -0.125,
    0.125,
    0.125,
    0.125,
    0.125,
    0.5,
    -0.125,
    0.125,
    0.5,
    0.125,
    0.125,
    0.125,
    0.125,
    0.125,
    0.5,
    -0.125,
    0.125,
    0.125,
    0.125,
    0.125,
    0.125,
    -0.125,
    0.125,
    -0.125,
    -0.5,
    -0.125,
    0.125,
    -0.5,
    -0.125,
    0.125,
    -0.5,
    0.125,
    -0.125,
    -0.5,
    0.125,
    -0.125,
    -0.5,
    -0.125,
    0.125,
    -0.5,
    0.125,
    0.125,
    -0.5,
    -0.125,
    0.125,
    -0.125,
    -0.125,
    0.125,
    -0.5,
    0.125,
    0.125,
    -0.5,
    0.125,
    0.125,
    -0.125,
    -0.125,
    0.125,
    -0.125,
    0.125,
    -0.125,
    -0.5,
    -0.125,
    -0.125,
    -0.5,
    0.125,
    -0.125,
    -0.125,
    -0.125,
    -0.125,
    -0.5,
    0.125,
    -0.125,
    -0.125,
    0.125,
    -0.125,
    -0.125,
    -0.125,
    0.5,
    -0.125,
    -0.125,
    0.5,
    0.125,
    -0.125,
    0.5,
    0.125,
    0.125,
    0.5,
    -0.125,
    0.125,
    0.5,
    -0.125,
    -0.125,
    0.5,
    0.125,
    0.125,
    0.5,
    0.125,
    -0.125,
    0.125,
    0.125,
    -0.125,
    0.5,
    0.125,
    0.125,
    0.125,
    0.125,
    -0.125,
    0.125,
    0.125,
    0.125,
    0.5,
    0.125,
    0.125,
    0.5,
    -0.125,
    -0.125,
    0.5,
    -0.125,
    0.125,
    0.125,
    -0.125,
    -0.125,
    0.125,
    -0.125,
    -0.125,
    0.5,
    -0.125,
    0.125,
    0.125,
    -0.125,
    0.125,
    -0.125,
    -0.125,
    -0.125,
    0.125,
    0.125,
    0.125,
    0.125,
    0.125,
    -0.125,
    0.125,
    0.125,
    0.125,
    -0.125,
    -0.125,
    -0.125,
    -0.125,
    -0.125,
    0.125
  ],
  "raw_lib": {
    ".000": [],
    ".001": [],
    ".002": [],
    ".003": [],
    ".010": [],
    ".011": [],
    ".012": [],
    ".013": [],
    ".020": [],
    ".021": [],
    ".022": [],
    ".023": [],
    ".030": [],
    ".031": [],
    ".032": [],
    ".033": [],
    ".100": [],
    ".101": [],
    ".102": [],
    ".103": [],
    ".110": [],
    ".111": [],
    ".112": [],
    ".113": [],
    ".120": [],
    ".121": [],
    ".122": [],
    ".123": [],
    ".130": [],
    ".131": [],
    ".132": [],
    ".133": [],
    ".200": [],
    ".201": [],
    ".202": [],
    ".203": [],
    ".210": [],
    ".211": [],
    ".212": [],
    ".213": [],
    ".220": [],
    ".221": [],
    ".222": [],
    ".223": [],
    ".230": [],
    ".231": [],
    ".232": [],
    ".233": [],
    ".300": [],
    ".301": [],
    ".302": [],
    ".303": [],
    ".310": [],
    ".311": [],
    ".312": [],
    ".313": [],
    ".320": [],
    ".321": [],
    ".322": [],
    ".323": [],
    ".330": [],
    ".331": [],
    ".332": [],
    ".333": [],
    "s000": [
      [
        -0.125,
        0.5,
        -0.125
      ],
      [
        0.125,
        0.5,
        -0.125
      ],
      [
        -0.125,
        0.5,
        0.125
      ],
      [
        0.125,
        0.5,
        0.125
      ]
    ],
    "p000": [
      [
        -0.125,
        -0.5,
        -0.125
      ],
      [
        0.125,
        -0.5,
        -0.125
      ],
      [
        -0.125,
        -0.5,
        0.125
      ],
      [
        0.125,
        -0.5,
        0.125
      ],
      [
        -0.125,
        0.5,
        -0.125
      ],
      [
        0.125,
        0.5,
        -0.125
      ],
      [
        -0.125,
        0.5,
        0.125
      ],
      [
        0.125,
        0.5,
        0.125
      ]
    ],
    "p001": [
      [
        -0.5,
        0.12499999999999997,
        -0.125
      ],
      [
        -0.5,
        -0.12500000000000003,
        -0.125
      ],
      [
        -0.5,
        0.12499999999999997,
        0.125
      ],
      [
        -0.5,
        -0.12500000000000003,
        0.125
      ],
      [
        0.5,
        0.12500000000000003,
        -0.125
      ],
      [
        0.5,
        -0.12499999999999997,
        -0.125
      ],
      [
        0.5,
        0.12500000000000003,
        0.125
      ],
      [
        0.5,
        -0.12499999999999997,
        0.125
      ]
    ],
    "p002": [
      [
        0.12499999999999994,
        0.5,
        -0.125
      ],
      [
        -0.12500000000000006,
        0.5,
        -0.125
      ],
      [
        0.12499999999999994,
        0.5,
        0.125
      ],
      [
        -0.12500000000000006,
        0.5,
        0.125
      ],
      [
        0.12500000000000006,
        -0.5,
        -0.125
      ],
      [
        -0.12499999999999994,
        -0.5,
        -0.125
      ],
      [
        0.12500000000000006,
        -0.5,
        0.125
      ],
      [
        -0.12499999999999994,
        -0.5,
        0.125
      ]
    ],
    "p003": [
      [
        0.5,
        -0.1249999999999999,
        -0.125
      ],
      [
        0.5,
        0.12500000000000008,
        -0.125
      ],
      [
        0.5,
        -0.1249999999999999,
        0.125
      ],
      [
        0.5,
        0.12500000000000008,
        0.125
      ],
      [
        -0.5,
        -0.12500000000000008,
        -0.125
      ],
      [
        -0.5,
        0.1249999999999999,
        -0.125
      ],
      [
        -0.5,
        -0.12500000000000008,
        0.125
      ],
      [
        -0.5,
        0.1249999999999999,
        0.125
      ]
    ],
    "p010": [
      [
        0.12499999999999999,
        -0.5,
        -0.125
      ],
      [
        0.125,
        -0.5,
        0.12499999999999999
      ],
      [
        -0.125,
        -0.5,
        -0.12499999999999999
      ],
      [
        -0.12499999999999999,
        -0.5,
        0.125
      ],
      [
        0.12499999999999999,
        0.5,
        -0.125
      ],
      [
        0.125,
        0.5,
        0.12499999999999999
      ],
      [
        -0.125,
        0.5,
        -0.12499999999999999
      ],
      [
        -0.12499999999999999,
        0.5,
        0.125
      ]
    ],
    "p011": [
      [
        -0.5,
        -0.12500000000000003,
        -0.125
      ],
      [
        -0.5,
        -0.12500000000000003,
        0.12499999999999999
      ],
      [
        -0.5,
        0.12499999999999997,
        -0.12499999999999999
      ],
      [
        -0.5,
        0.12499999999999996,
        0.125
      ],
      [
        0.5,
        -0.12499999999999996,
        -0.125
      ],
      [
        0.5,
        -0.12499999999999997,
        0.12499999999999999
      ],
      [
        0.5,
        0.12500000000000003,
        -0.12499999999999999
      ],
      [
        0.5,
        0.12500000000000003,
        0.125
      ]
    ],
    "p012": [
      [
        -0.12500000000000006,
        0.5,
        -0.125
      ],
      [
        -0.12500000000000006,
        0.5,
        0.12499999999999999
      ],
      [
        0.12499999999999994,
        0.5,
        -0.12499999999999999
      ],
      [
        0.12499999999999993,
        0.5,
        0.125
      ],
      [
        -0.12499999999999993,
        -0.5,
        -0.125
      ],
      [
        -0.12499999999999994,
        -0.5,
        0.12499999999999999
      ],
      [
        0.12500000000000006,
        -0.5,
        -0.12499999999999999
      ],
      [
        0.12500000000000006,
        -0.5,
        0.125
      ]
    ],
    "p013": [
      [
        0.5,
        0.12500000000000008,
        -0.125
      ],
      [
        0.5,
        0.1250000000000001,
        0.12499999999999999
      ],
      [
        0.5,
        -0.12499999999999992,
        -0.12499999999999999
      ],
      [
        0.5,
        -0.1249999999999999,
        0.125
      ],
      [
        -0.5,
        0.1249999999999999,
        -0.125
      ],
      [
        -0.5,
        0.12499999999999992,
        0.12499999999999999
      ],
      [
        -0.5,
        -0.1250000000000001,
        -0.12499999999999999
      ],
      [
        -0.5,
        -0.12500000000000008,
        0.125
      ]
    ],
    "p020": [
      [
        0.12500000000000003,
        -0.5,
        0.12499999999999999
      ],
      [
        -0.12499999999999999,
        -0.5,
        0.12500000000000003
      ],
      [
        0.12499999999999999,
        -0.5,
        -0.12500000000000003
      ],
      [
        -0.12500000000000003,
        -0.5,
        -0.12499999999999999
      ],
      [
        0.12500000000000003,
        0.5,
        0.12499999999999999
      ],
      [
        -0.12499999999999999,
        0.5,
        0.12500000000000003
      ],
      [
        0.12499999999999999,
        0.5,
        -0.12500000000000003
      ],
      [
        -0.12500000000000003,
        0.5,
        -0.12499999999999999
      ]
    ],
    "p021": [
      [
        -0.5,
        -0.12500000000000006,
        0.12499999999999999
      ],
      [
        -0.5,
        0.12499999999999996,
        0.12500000000000003
      ],
      [
        -0.5,
        -0.125,
        -0.12500000000000003
      ],
      [
        -0.5,
        0.12499999999999999,
        -0.12499999999999999
      ],
      [
        0.5,
        -0.12499999999999999,
        0.12499999999999999
      ],
      [
        0.5,
        0.125,
        0.12500000000000003
      ],
      [
        0.5,
        -0.12499999999999996,
        -0.12500000000000003
      ],
      [
        0.5,
        0.12500000000000006,
        -0.12499999999999999
      ]
    ],
    "p022": [
      [
        -0.12500000000000008,
        0.5,
        0.12499999999999999
      ],
      [
        0.12499999999999993,
        0.5,
        0.12500000000000003
      ],
      [
        -0.12500000000000003,
        0.5,
        -0.12500000000000003
      ],
      [
        0.12499999999999996,
        0.5,
        -0.12499999999999999
      ],
      [
        -0.12499999999999996,
        -0.5,
        0.12499999999999999
      ],
      [
        0.12500000000000003,
        -0.5,
        0.12500000000000003
      ],
      [
        -0.12499999999999993,
        -0.5,
        -0.12500000000000003
      ],
      [
        0.12500000000000008,
        -0.5,
        -0.12499999999999999
      ]
    ],
    "p023": [
      [
        0.5,
        0.1250000000000001,
        0.12499999999999999
      ],
      [
        0.5,
        -0.12499999999999989,
        0.12500000000000003
      ],
      [
        0.5,
        0.12500000000000006,
        -0.12500000000000003
      ],
      [
        0.5,
        -0.12499999999999992,
        -0.12499999999999999
      ],
      [
        -0.5,
        0.12499999999999992,
        0.12499999999999999
      ],
      [
        -0.5,
        -0.12500000000000006,
        0.12500000000000003
      ],
      [
        -0.5,
        0.12499999999999989,
        -0.12500000000000003
      ],
      [
        -0.5,
        -0.1250000000000001,
        -0.12499999999999999
      ]
    ],
    "p030": [
      [
        -0.12499999999999997,
        -0.5,
        0.12500000000000003
      ],
      [
        -0.12500000000000003,
        -0.5,
        -0.12499999999999997
      ],
      [
        0.12500000000000003,
        -0.5,
        0.12499999999999997
      ],
      [
        0.12499999999999997,
        -0.5,
        -0.12500000000000003
      ],
      [
        -0.12499999999999997,
        0.5,
        0.12500000000000003
      ],
      [
        -0.12500000000000003,
        0.5,
        -0.12499999999999997
      ],
      [
        0.12500000000000003,
        0.5,
        0.12499999999999997
      ],
      [
        0.12499999999999997,
        0.5,
        -0.12500000000000003
      ]
    ],
    "p031": [
      [
        -0.5,
        0.12499999999999994,
        0.12500000000000003
      ],
      [
        -0.5,
        0.12499999999999999,
        -0.12499999999999997
      ],
      [
        -0.5,
        -0.12500000000000006,
        0.12499999999999997
      ],
      [
        -0.5,
        -0.125,
        -0.12500000000000003
      ],
      [
        0.5,
        0.125,
        0.12500000000000003
      ],
      [
        0.5,
        0.12500000000000006,
        -0.12499999999999997
      ],
      [
        0.5,
        -0.12499999999999999,
        0.12499999999999997
      ],
      [
        0.5,
        -0.12499999999999994,
        -0.12500000000000003
      ]
    ],
    "p032": [
      [
        0.12499999999999992,
        0.5,
        0.12500000000000003
      ],
      [
        0.12499999999999996,
        0.5,
        -0.12499999999999997
      ],
      [
        -0.12500000000000008,
        0.5,
        0.12499999999999997
      ],
      [
        -0.12500000000000003,
        0.5,
        -0.12500000000000003
      ],
      [
        0.12500000000000003,
        -0.5,
        0.12500000000000003
      ],
      [
        0.12500000000000008,
        -0.5,
        -0.12499999999999997
      ],
      [
        -0.12499999999999996,
        -0.5,
        0.12499999999999997
      ],
      [
        -0.12499999999999992,
        -0.5,
        -0.12500000000000003
      ]
    ],
    "p033": [
      [
        0.5,
        -0.12499999999999989,
        0.12500000000000003
      ],
      [
        0.5,
        -0.12499999999999993,
        -0.12499999999999997
      ],
      [
        0.5,
        0.1250000000000001,
        0.12499999999999997
      ],
      [
        0.5,
        0.12500000000000006,
        -0.12500000000000003
      ],
      [
        -0.5,
        -0.12500000000000006,
        0.12500000000000003
      ],
      [
        -0.5,
        -0.1250000000000001,
        -0.12499999999999997
      ],
      [
        -0.5,
        0.12499999999999993,
        0.12499999999999997
      ],
      [
        -0.5,
        0.12499999999999989,
        -0.12500000000000003
      ]
    ],
    "p100": [
      [
        -0.125,
        -0.12500000000000003,
        0.5
      ],
      [
        0.125,
        -0.12500000000000003,
        0.5
      ],
      [
        -0.125,
        0.12499999999999997,
        0.5
      ],
      [
        0.125,
        0.12499999999999997,
        0.5
      ],
      [
        -0.125,
        -0.12499999999999997,
        -0.5
      ],
      [
        0.125,
        -0.12499999999999997,
        -0.5
      ],
      [
        -0.125,
        0.12500000000000003,
        -0.5
      ],
      [
        0.125,
        0.12500000000000003,
        -0.5
      ]
    ],
    "p101": [
      [
        -0.12500000000000003,
        0.12499999999999999,
        0.5
      ],
      [
        -0.12500000000000003,
        -0.125,
        0.5
      ],
      [
        0.12499999999999996,
        0.125,
        0.5
      ],
      [
        0.12499999999999997,
        -0.12499999999999999,
        0.5
      ],
      [
        -0.12499999999999997,
        0.12499999999999999,
        -0.5
      ],
      [
        -0.12499999999999996,
        -0.125,
        -0.5
      ],
      [
        0.12500000000000003,
        0.125,
        -0.5
      ],
      [
        0.12500000000000003,
        -0.12499999999999999,
        -0.5
      ]
    ],
    "p102": [
      [
        0.12499999999999999,
        0.12500000000000006,
        0.5
      ],
      [
        -0.12500000000000003,
        0.12500000000000003,
        0.5
      ],
      [
        0.12500000000000003,
        -0.12499999999999996,
        0.5
      ],
      [
        -0.12499999999999999,
        -0.12499999999999999,
        0.5
      ],
      [
        0.12499999999999999,
        0.12499999999999999,
        -0.5
      ],
      [
        -0.12500000000000003,
        0.12499999999999996,
        -0.5
      ],
      [
        0.12500000000000003,
        -0.12500000000000003,
        -0.5
      ],
      [
        -0.12499999999999999,
        -0.12500000000000006,
        -0.5
      ]
    ],
    "p103": [
      [
        0.12500000000000006,
        -0.12499999999999997,
        0.5
      ],
      [
        0.125,
        0.12500000000000003,
        0.5
      ],
      [
        -0.12499999999999994,
        -0.12500000000000003,
        0.5
      ],
      [
        -0.12499999999999999,
        0.12499999999999997,
        0.5
      ],
      [
        0.12499999999999999,
        -0.12499999999999997,
        -0.5
      ],
      [
        0.12499999999999994,
        0.12500000000000003,
        -0.5
      ],
      [
        -0.125,
        -0.12500000000000003,
        -0.5
      ],
      [
        -0.12500000000000006,
        0.12499999999999997,
        -0.5
      ]
    ],
    "p110": [
      [
        -0.5,
        -0.12500000000000003,
        -0.12499999999999997
      ],
      [
        -0.5,
        -0.12500000000000003,
        0.12500000000000003
      ],
      [
        -0.5,
        0.12499999999999997,
        -0.12499999999999997
      ],
      [
        -0.5,
        0.12499999999999997,
        0.12500000000000003
      ],
      [
        0.5,
        -0.12499999999999997,
        -0.12500000000000003
      ],
      [
        0.5,
        -0.12499999999999997,
        0.12499999999999997
      ],
      [
        0.5,
        0.12500000000000003,
        -0.12500000000000003
      ],
      [
        0.5,
        0.12500000000000003,
        0.12499999999999997
      ]
    ],
    "p111": [
      [
        -0.12500000000000006,
        0.5,
        -0.12499999999999997
      ],
      [
        -0.12500000000000006,
        0.5,
        0.12500000000000003
      ],
      [
        0.12499999999999994,
        0.5,
        -0.12499999999999997
      ],
      [
        0.12499999999999994,
        0.5,
        0.12500000000000003
      ],
      [
        -0.12499999999999994,
        -0.5,
        -0.12500000000000003
      ],
      [
        -0.12499999999999994,
        -0.5,
        0.12499999999999997
      ],
      [
        0.12500000000000006,
        -0.5,
        -0.12500000000000003
      ],
      [
        0.12500000000000006,
        -0.5,
        0.12499999999999997
      ]
    ],
    "p112": [
      [
        0.5,
        0.12500000000000008,
        -0.12499999999999997
      ],
      [
        0.5,
        0.12500000000000008,
        0.12500000000000003
      ],
      [
        0.5,
        -0.1249999999999999,
        -0.12499999999999997
      ],
      [
        0.5,
        -0.1249999999999999,
        0.12500000000000003
      ],
      [
        -0.5,
        0.1249999999999999,
        -0.12500000000000003
      ],
      [
        -0.5,
        0.1249999999999999,
        0.12499999999999997
      ],
      [
        -0.5,
        -0.12500000000000008,
        -0.12500000000000003
      ],
      [
        -0.5,
        -0.12500000000000008,
        0.12499999999999997
      ]
    ],
    "p113": [
      [
        0.1250000000000001,
        -0.49999999999999994,
        -0.12499999999999997
      ],
      [
        0.1250000000000001,
        -0.49999999999999994,
        0.12500000000000003
      ],
      [
        -0.12499999999999988,
        -0.5,
        -0.12499999999999997
      ],
      [
        -0.12499999999999988,
        -0.5,
        0.12500000000000003
      ],
      [
        0.12499999999999988,
        0.5,
        -0.12500000000000003
      ],
      [
        0.12499999999999988,
        0.5,
        0.12499999999999997
      ],
      [
        -0.1250000000000001,
        0.49999999999999994,
        -0.12500000000000003
      ],
      [
        -0.1250000000000001,
        0.49999999999999994,
        0.12499999999999997
      ]
    ],
    "p120": [
      [
        0.12499999999999994,
        -0.12500000000000003,
        -0.5
      ],
      [
        -0.12500000000000006,
        -0.12500000000000003,
        -0.5
      ],
      [
        0.12499999999999994,
        0.12499999999999997,
        -0.5
      ],
      [
        -0.12500000000000006,
        0.12499999999999997,
        -0.5
      ],
      [
        0.12500000000000006,
        -0.12499999999999997,
        0.5
      ],
      [
        -0.12499999999999994,
        -0.12499999999999997,
        0.5
      ],
      [
        0.12500000000000006,
        0.12500000000000003,
        0.5
      ],
      [
        -0.12499999999999994,
        0.12500000000000003,
        0.5
      ]
    ],
    "p121": [
      [
        -0.12500000000000003,
        -0.12499999999999996,
        -0.5
      ],
      [
        -0.12500000000000003,
        0.12500000000000006,
        -0.5
      ],
      [
        0.12499999999999997,
        -0.12499999999999993,
        -0.5
      ],
      [
        0.12499999999999996,
        0.12500000000000006,
        -0.5
      ],
      [
        -0.12499999999999996,
        -0.12500000000000006,
        0.5
      ],
      [
        -0.12499999999999997,
        0.12499999999999993,
        0.5
      ],
      [
        0.12500000000000003,
        -0.12500000000000006,
        0.5
      ],
      [
        0.12500000000000003,
        0.12499999999999996,
        0.5
      ]
    ],
    "p122": [
      [
        -0.12499999999999996,
        0.12500000000000003,
        -0.5
      ],
      [
        0.12500000000000003,
        0.12500000000000006,
        -0.5
      ],
      [
        -0.12499999999999993,
        -0.12499999999999999,
        -0.5
      ],
      [
        0.12500000000000008,
        -0.12499999999999996,
        -0.5
      ],
      [
        -0.12500000000000008,
        0.12499999999999996,
        0.5
      ],
      [
        0.12499999999999993,
        0.12499999999999999,
        0.5
      ],
      [
        -0.12500000000000003,
        -0.12500000000000006,
        0.5
      ],
      [
        0.12499999999999996,
        -0.12500000000000003,
        0.5
      ]
    ],
    "p123": [
      [
        0.125,
        0.12499999999999997,
        -0.5
      ],
      [
        0.12500000000000006,
        -0.12500000000000003,
        -0.5
      ],
      [
        -0.12499999999999999,
        0.12499999999999992,
        -0.5
      ],
      [
        -0.12499999999999994,
        -0.12500000000000008,
        -0.5
      ],
      [
        0.12499999999999994,
        0.12500000000000008,
        0.5
      ],
      [
        0.12499999999999999,
        -0.12499999999999992,
        0.5
      ],
      [
        -0.12500000000000006,
        0.12500000000000003,
        0.5
      ],
      [
        -0.125,
        -0.12499999999999997,
        0.5
      ]
    ],
    "p130": [
      [
        0.5,
        -0.12500000000000003,
        0.1249999999999999
      ],
      [
        0.5,
        -0.12500000000000003,
        -0.12500000000000008
      ],
      [
        0.5,
        0.12499999999999997,
        0.1249999999999999
      ],
      [
        0.5,
        0.12499999999999997,
        -0.12500000000000008
      ],
      [
        -0.5,
        -0.12499999999999997,
        0.12500000000000008
      ],
      [
        -0.5,
        -0.12499999999999997,
        -0.1249999999999999
      ],
      [
        -0.5,
        0.12500000000000003,
        0.12500000000000008
      ],
      [
        -0.5,
        0.12500000000000003,
        -0.1249999999999999
      ]
    ],
    "p131": [
      [
        -0.125,
        -0.5,
        0.1249999999999999
      ],
      [
        -0.125,
        -0.5,
        -0.12500000000000008
      ],
      [
        0.125,
        -0.5,
        0.1249999999999999
      ],
      [
        0.125,
        -0.5,
        -0.12500000000000008
      ],
      [
        -0.125,
        0.5,
        0.12500000000000008
      ],
      [
        -0.125,
        0.5,
        -0.1249999999999999
      ],
      [
        0.125,
        0.5,
        0.12500000000000008
      ],
      [
        0.125,
        0.5,
        -0.1249999999999999
      ]
    ],
    "p132": [
      [
        -0.5,
        0.12499999999999997,
        0.1249999999999999
      ],
      [
        -0.5,
        0.12499999999999997,
        -0.12500000000000008
      ],
      [
        -0.5,
        -0.12500000000000003,
        0.1249999999999999
      ],
      [
        -0.5,
        -0.12500000000000003,
        -0.12500000000000008
      ],
      [
        0.5,
        0.12500000000000003,
        0.12500000000000008
      ],
      [
        0.5,
        0.12500000000000003,
        -0.1249999999999999
      ],
      [
        0.5,
        -0.12499999999999997,
        0.12500000000000008
      ],
      [
        0.5,
        -0.12499999999999997,
        -0.1249999999999999
      ]
    ],
    "p133": [
      [
        0.12499999999999994,
        0.5,
        0.1249999999999999
      ],
      [
        0.12499999999999994,
        0.5,
        -0.12500000000000008
      ],
      [
        -0.12500000000000006,
        0.5,
        0.1249999999999999
      ],
      [
        -0.12500000000000006,
        0.5,
        -0.12500000000000008
      ],
      [
        0.12500000000000006,
        -0.5,
        0.12500000000000008
      ],
      [
        0.12500000000000006,
        -0.5,
        -0.1249999999999999
      ],
      [
        -0.12499999999999994,
        -0.5,
        0.12500000000000008
      ],
      [
        -0.12499999999999994,
        -0.5,
        -0.1249999999999999
      ]
    ],
    "p200": [
      [
        -0.125,
        0.5,
        0.12500000000000006
      ],
      [
        0.125,
        0.5,
        0.12500000000000006
      ],
      [
        -0.125,
        0.5,
        -0.12499999999999994
      ],
      [
        0.125,
        0.5,
        -0.12499999999999994
      ],
      [
        -0.125,
        -0.5,
        0.12499999999999994
      ],
      [
        0.125,
        -0.5,
        0.12499999999999994
      ],
      [
        -0.125,
        -0.5,
        -0.12500000000000006
      ],
      [
        0.125,
        -0.5,
        -0.12500000000000006
      ]
    ],
    "p201": [
      [
        0.5,
        0.12500000000000003,
        0.12500000000000006
      ],
      [
        0.5,
        -0.12499999999999997,
        0.12500000000000006
      ],
      [
        0.5,
        0.12500000000000003,
        -0.12499999999999994
      ],
      [
        0.5,
        -0.12499999999999997,
        -0.12499999999999994
      ],
      [
        -0.5,
        0.12499999999999997,
        0.12499999999999994
      ],
      [
        -0.5,
        -0.12500000000000003,
        0.12499999999999994
      ],
      [
        -0.5,
        0.12499999999999997,
        -0.12500000000000006
      ],
      [
        -0.5,
        -0.12500000000000003,
        -0.12500000000000006
      ]
    ],
    "p202": [
      [
        0.12500000000000006,
        -0.5,
        0.12500000000000006
      ],
      [
        -0.12499999999999994,
        -0.5,
        0.12500000000000006
      ],
      [
        0.12500000000000006,
        -0.5,
        -0.12499999999999994
      ],
      [
        -0.12499999999999994,
        -0.5,
        -0.12499999999999994
      ],
      [
        0.12499999999999994,
        0.5,
        0.12499999999999994
      ],
      [
        -0.12500000000000006,
        0.5,
        0.12499999999999994
      ],
      [
        0.12499999999999994,
        0.5,
        -0.12500000000000006
      ],
      [
        -0.12500000000000006,
        0.5,
        -0.12500000000000006
      ]
    ],
    "p203": [
      [
        -0.5,
        -0.12500000000000008,
        0.12500000000000006
      ],
      [
        -0.5,
        0.1249999999999999,
        0.12500000000000006
      ],
      [
        -0.5,
        -0.12500000000000008,
        -0.12499999999999994
      ],
      [
        -0.5,
        0.1249999999999999,
        -0.12499999999999994
      ],
      [
        0.5,
        -0.1249999999999999,
        0.12499999999999994
      ],
      [
        0.5,
        0.12500000000000008,
        0.12499999999999994
      ],
      [
        0.5,
        -0.1249999999999999,
        -0.12500000000000006
      ],
      [
        0.5,
        0.12500000000000008,
        -0.12500000000000006
      ]
    ],
    "p210": [
      [
        -0.12500000000000006,
        0.5,
        -0.12499999999999999
      ],
      [
        -0.12500000000000006,
        0.5,
        0.125
      ],
      [
        0.12499999999999993,
        0.5,
        -0.125
      ],
      [
        0.12499999999999994,
        0.5,
        0.12499999999999999
      ],
      [
        -0.12499999999999994,
        -0.5,
        -0.12499999999999999
      ],
      [
        -0.12499999999999993,
        -0.5,
        0.125
      ],
      [
        0.12500000000000006,
        -0.5,
        -0.125
      ],
      [
        0.12500000000000006,
        -0.5,
        0.12499999999999999
      ]
    ],
    "p211": [
      [
        0.5,
        0.1250000000000001,
        -0.12499999999999999
      ],
      [
        0.5,
        0.12500000000000008,
        0.125
      ],
      [
        0.5,
        -0.1249999999999999,
        -0.125
      ],
      [
        0.5,
        -0.12499999999999992,
        0.12499999999999999
      ],
      [
        -0.5,
        0.12499999999999992,
        -0.12499999999999999
      ],
      [
        -0.5,
        0.1249999999999999,
        0.125
      ],
      [
        -0.5,
        -0.12500000000000008,
        -0.125
      ],
      [
        -0.5,
        -0.1250000000000001,
        0.12499999999999999
      ]
    ],
    "p212": [
      [
        0.12500000000000014,
        -0.49999999999999994,
        -0.12499999999999999
      ],
      [
        0.1250000000000001,
        -0.49999999999999994,
        0.125
      ],
      [
        -0.12499999999999988,
        -0.5,
        -0.125
      ],
      [
        -0.12499999999999989,
        -0.5,
        0.12499999999999999
      ],
      [
        0.12499999999999989,
        0.5,
        -0.12499999999999999
      ],
      [
        0.12499999999999988,
        0.5,
        0.125
      ],
      [
        -0.1250000000000001,
        0.49999999999999994,
        -0.125
      ],
      [
        -0.12500000000000014,
        0.49999999999999994,
        0.12499999999999999
      ]
    ],
    "p213": [
      [
        -0.49999999999999994,
        -0.12500000000000017,
        -0.12499999999999999
      ],
      [
        -0.49999999999999994,
        -0.12500000000000014,
        0.125
      ],
      [
        -0.5,
        0.12499999999999983,
        -0.125
      ],
      [
        -0.5,
        0.12499999999999986,
        0.12499999999999999
      ],
      [
        0.5,
        -0.12499999999999986,
        -0.12499999999999999
      ],
      [
        0.5,
        -0.12499999999999983,
        0.125
      ],
      [
        0.49999999999999994,
        0.12500000000000014,
        -0.125
      ],
      [
        0.49999999999999994,
        0.12500000000000017,
        0.12499999999999999
      ]
    ],
    "p220": [
      [
        0.12499999999999999,
        0.5,
        -0.12500000000000008
      ],
      [
        -0.12500000000000003,
        0.5,
        -0.12500000000000006
      ],
      [
        0.12500000000000003,
        0.5,
        0.12499999999999992
      ],
      [
        -0.12499999999999999,
        0.5,
        0.12499999999999996
      ],
      [
        0.12499999999999999,
        -0.5,
        -0.12499999999999996
      ],
      [
        -0.12500000000000003,
        -0.5,
        -0.12499999999999992
      ],
      [
        0.12500000000000003,
        -0.5,
        0.12500000000000006
      ],
      [
        -0.12499999999999999,
        -0.5,
        0.12500000000000008
      ]
    ],
    "p221": [
      [
        0.5,
        -0.12499999999999996,
        -0.12500000000000008
      ],
      [
        0.5,
        0.12500000000000006,
        -0.12500000000000006
      ],
      [
        0.5,
        -0.12499999999999999,
        0.12499999999999992
      ],
      [
        0.5,
        0.125,
        0.12499999999999996
      ],
      [
        -0.5,
        -0.125,
        -0.12499999999999996
      ],
      [
        -0.5,
        0.12499999999999999,
        -0.12499999999999992
      ],
      [
        -0.5,
        -0.12500000000000006,
        0.12500000000000006
      ],
      [
        -0.5,
        0.12499999999999996,
        0.12500000000000008
      ]
    ],
    "p222": [
      [
        -0.12499999999999993,
        -0.5,
        -0.12500000000000008
      ],
      [
        0.12500000000000008,
        -0.5,
        -0.12500000000000006
      ],
      [
        -0.12499999999999996,
        -0.5,
        0.12499999999999992
      ],
      [
        0.12500000000000003,
        -0.5,
        0.12499999999999996
      ],
      [
        -0.12500000000000003,
        0.5,
        -0.12499999999999996
      ],
      [
        0.12499999999999996,
        0.5,
        -0.12499999999999992
      ],
      [
        -0.12500000000000008,
        0.5,
        0.12500000000000006
      ],
      [
        0.12499999999999993,
        0.5,
        0.12500000000000008
      ]
    ],
    "p223": [
      [
        -0.5,
        0.12499999999999989,
        -0.12500000000000008
      ],
      [
        -0.5,
        -0.1250000000000001,
        -0.12500000000000006
      ],
      [
        -0.5,
        0.12499999999999992,
        0.12499999999999992
      ],
      [
        -0.5,
        -0.12500000000000006,
        0.12499999999999996
      ],
      [
        0.5,
        0.12500000000000006,
        -0.12499999999999996
      ],
      [
        0.5,
        -0.12499999999999992,
        -0.12499999999999992
      ],
      [
        0.5,
        0.1250000000000001,
        0.12500000000000006
      ],
      [
        0.5,
        -0.12499999999999989,
        0.12500000000000008
      ]
    ],
    "p230": [
      [
        0.12500000000000008,
        0.5,
        0.12499999999999997
      ],
      [
        0.12500000000000003,
        0.5,
        -0.12500000000000003
      ],
      [
        -0.12499999999999992,
        0.5,
        0.12500000000000003
      ],
      [
        -0.12499999999999996,
        0.5,
        -0.12499999999999997
      ],
      [
        0.12499999999999996,
        -0.5,
        0.12499999999999997
      ],
      [
        0.12499999999999992,
        -0.5,
        -0.12500000000000003
      ],
      [
        -0.12500000000000003,
        -0.5,
        0.12500000000000003
      ],
      [
        -0.12500000000000008,
        -0.5,
        -0.12499999999999997
      ]
    ],
    "p231": [
      [
        0.5,
        -0.12500000000000006,
        0.12499999999999997
      ],
      [
        0.5,
        -0.125,
        -0.12500000000000003
      ],
      [
        0.5,
        0.12499999999999994,
        0.12500000000000003
      ],
      [
        0.5,
        0.12499999999999999,
        -0.12499999999999997
      ],
      [
        -0.5,
        -0.12499999999999999,
        0.12499999999999997
      ],
      [
        -0.5,
        -0.12499999999999994,
        -0.12500000000000003
      ],
      [
        -0.5,
        0.125,
        0.12500000000000003
      ],
      [
        -0.5,
        0.12500000000000006,
        -0.12499999999999997
      ]
    ],
    "p232": [
      [
        -0.12500000000000003,
        -0.5,
        0.12499999999999997
      ],
      [
        -0.12499999999999997,
        -0.5,
        -0.12500000000000003
      ],
      [
        0.12499999999999997,
        -0.5,
        0.12500000000000003
      ],
      [
        0.12500000000000003,
        -0.5,
        -0.12499999999999997
      ],
      [
        -0.12500000000000003,
        0.5,
        0.12499999999999997
      ],
      [
        -0.12499999999999997,
        0.5,
        -0.12500000000000003
      ],
      [
        0.12499999999999997,
        0.5,
        0.12500000000000003
      ],
      [
        0.12500000000000003,
        0.5,
        -0.12499999999999997
      ]
    ],
    "p233": [
      [
        -0.5,
        0.12499999999999999,
        0.12499999999999997
      ],
      [
        -0.5,
        0.12499999999999994,
        -0.12500000000000003
      ],
      [
        -0.5,
        -0.125,
        0.12500000000000003
      ],
      [
        -0.5,
        -0.12500000000000006,
        -0.12499999999999997
      ],
      [
        0.5,
        0.12500000000000006,
        0.12499999999999997
      ],
      [
        0.5,
        0.125,
        -0.12500000000000003
      ],
      [
        0.5,
        -0.12499999999999994,
        0.12500000000000003
      ],
      [
        0.5,
        -0.12499999999999999,
        -0.12499999999999997
      ]
    ],
    "p300": [
      [
        -0.125,
        0.12500000000000008,
        -0.5
      ],
      [
        0.125,
        0.12500000000000008,
        -0.5
      ],
      [
        -0.125,
        -0.1249999999999999,
        -0.5
      ],
      [
        0.125,
        -0.1249999999999999,
        -0.5
      ],
      [
        -0.125,
        0.1249999999999999,
        0.5
      ],
      [
        0.125,
        0.1249999999999999,
        0.5
      ],
      [
        -0.125,
        -0.12500000000000008,
        0.5
      ],
      [
        0.125,
        -0.12500000000000008,
        0.5
      ]
    ],
    "p301": [
      [
        0.12500000000000008,
        0.125,
        -0.5
      ],
      [
        0.1250000000000001,
        -0.12499999999999999,
        -0.5
      ],
      [
        -0.12499999999999992,
        0.12499999999999999,
        -0.5
      ],
      [
        -0.1249999999999999,
        -0.125,
        -0.5
      ],
      [
        0.1249999999999999,
        0.125,
        0.5
      ],
      [
        0.12499999999999992,
        -0.12499999999999999,
        0.5
      ],
      [
        -0.1250000000000001,
        0.12499999999999999,
        0.5
      ],
      [
        -0.12500000000000008,
        -0.125,
        0.5
      ]
    ],
    "p302": [
      [
        0.12500000000000003,
        -0.12500000000000008,
        -0.5
      ],
      [
        -0.12499999999999999,
        -0.1250000000000001,
        -0.5
      ],
      [
        0.12499999999999999,
        0.12499999999999992,
        -0.5
      ],
      [
        -0.12500000000000003,
        0.12499999999999989,
        -0.5
      ],
      [
        0.12500000000000003,
        -0.12499999999999989,
        0.5
      ],
      [
        -0.12499999999999999,
        -0.12499999999999992,
        0.5
      ],
      [
        0.12499999999999999,
        0.1250000000000001,
        0.5
      ],
      [
        -0.12500000000000003,
        0.12500000000000008,
        0.5
      ]
    ],
    "p303": [
      [
        -0.12500000000000006,
        -0.12500000000000003,
        -0.5
      ],
      [
        -0.1250000000000001,
        0.12499999999999997,
        -0.5
      ],
      [
        0.12499999999999993,
        -0.12499999999999997,
        -0.5
      ],
      [
        0.12499999999999989,
        0.12500000000000003,
        -0.5
      ],
      [
        -0.12499999999999989,
        -0.12500000000000003,
        0.5
      ],
      [
        -0.12499999999999993,
        0.12499999999999997,
        0.5
      ],
      [
        0.1250000000000001,
        -0.12499999999999997,
        0.5
      ],
      [
        0.12500000000000006,
        0.12500000000000003,
        0.5
      ]
    ],
    "p310": [
      [
        0.5,
        0.12500000000000008,
        -0.12500000000000003
      ],
      [
        0.5,
        0.12500000000000008,
        0.12499999999999997
      ],
      [
        0.5,
        -0.1249999999999999,
        -0.12500000000000003
      ],
      [
        0.5,
        -0.1249999999999999,
        0.12499999999999997
      ],
      [
        -0.5,
        0.1249999999999999,
        -0.12499999999999997
      ],
      [
        -0.5,
        0.1249999999999999,
        0.12500000000000003
      ],
      [
        -0.5,
        -0.12500000000000008,
        -0.12499999999999997
      ],
      [
        -0.5,
        -0.12500000000000008,
        0.12500000000000003
      ]
    ],
    "p311": [
      [
        0.1250000000000001,
        -0.49999999999999994,
        -0.12500000000000003
      ],
      [
        0.1250000000000001,
        -0.49999999999999994,
        0.12499999999999997
      ],
      [
        -0.12499999999999988,
        -0.5,
        -0.12500000000000003
      ],
      [
        -0.12499999999999988,
        -0.5,
        0.12499999999999997
      ],
      [
        0.12499999999999988,
        0.5,
        -0.12499999999999997
      ],
      [
        0.12499999999999988,
        0.5,
        0.12500000000000003
      ],
      [
        -0.1250000000000001,
        0.49999999999999994,
        -0.12499999999999997
      ],
      [
        -0.1250000000000001,
        0.49999999999999994,
        0.12500000000000003
      ]
    ],
    "p312": [
      [
        -0.49999999999999994,
        -0.12500000000000017,
        -0.12500000000000003
      ],
      [
        -0.49999999999999994,
        -0.12500000000000017,
        0.12499999999999997
      ],
      [
        -0.5,
        0.12499999999999985,
        -0.12500000000000003
      ],
      [
        -0.5,
        0.12499999999999985,
        0.12499999999999997
      ],
      [
        0.5,
        -0.12499999999999985,
        -0.12499999999999997
      ],
      [
        0.5,
        -0.12499999999999985,
        0.12500000000000003
      ],
      [
        0.49999999999999994,
        0.12500000000000017,
        -0.12499999999999997
      ],
      [
        0.49999999999999994,
        0.12500000000000017,
        0.12500000000000003
      ]
    ],
    "p313": [
      [
        -0.1250000000000002,
        0.49999999999999994,
        -0.12500000000000003
      ],
      [
        -0.1250000000000002,
        0.49999999999999994,
        0.12499999999999997
      ],
      [
        0.12499999999999982,
        0.5,
        -0.12500000000000003
      ],
      [
        0.12499999999999982,
        0.5,
        0.12499999999999997
      ],
      [
        -0.12499999999999982,
        -0.5,
        -0.12499999999999997
      ],
      [
        -0.12499999999999982,
        -0.5,
        0.12500000000000003
      ],
      [
        0.1250000000000002,
        -0.49999999999999994,
        -0.12499999999999997
      ],
      [
        0.1250000000000002,
        -0.49999999999999994,
        0.12500000000000003
      ]
    ],
    "p320": [
      [
        0.12500000000000006,
        0.12500000000000008,
        0.5
      ],
      [
        -0.12499999999999994,
        0.12500000000000008,
        0.5
      ],
      [
        0.12500000000000006,
        -0.1249999999999999,
        0.5
      ],
      [
        -0.12499999999999994,
        -0.1249999999999999,
        0.5
      ],
      [
        0.12499999999999994,
        0.1249999999999999,
        -0.5
      ],
      [
        -0.12500000000000006,
        0.1249999999999999,
        -0.5
      ],
      [
        0.12499999999999994,
        -0.12500000000000008,
        -0.5
      ],
      [
        -0.12500000000000006,
        -0.12500000000000008,
        -0.5
      ]
    ],
    "p321": [
      [
        0.1250000000000001,
        -0.12500000000000006,
        0.5
      ],
      [
        0.12500000000000008,
        0.12499999999999996,
        0.5
      ],
      [
        -0.1249999999999999,
        -0.12500000000000006,
        0.5
      ],
      [
        -0.12499999999999992,
        0.12499999999999993,
        0.5
      ],
      [
        0.12499999999999992,
        -0.12499999999999993,
        -0.5
      ],
      [
        0.1249999999999999,
        0.12500000000000006,
        -0.5
      ],
      [
        -0.12500000000000008,
        -0.12499999999999996,
        -0.5
      ],
      [
        -0.1250000000000001,
        0.12500000000000006,
        -0.5
      ]
    ],
    "p322": [
      [
        -0.12500000000000003,
        -0.1250000000000001,
        0.5
      ],
      [
        0.12499999999999996,
        -0.12500000000000008,
        0.5
      ],
      [
        -0.12500000000000008,
        0.12499999999999989,
        0.5
      ],
      [
        0.12499999999999993,
        0.12499999999999992,
        0.5
      ],
      [
        -0.12499999999999993,
        -0.12499999999999992,
        -0.5
      ],
      [
        0.12500000000000008,
        -0.12499999999999989,
        -0.5
      ],
      [
        -0.12499999999999996,
        0.12500000000000008,
        -0.5
      ],
      [
        0.12500000000000003,
        0.1250000000000001,
        -0.5
      ]
    ],
    "p323": [
      [
        -0.1250000000000001,
        0.12500000000000003,
        0.5
      ],
      [
        -0.12500000000000006,
        -0.12499999999999997,
        0.5
      ],
      [
        0.12499999999999989,
        0.12500000000000008,
        0.5
      ],
      [
        0.12499999999999993,
        -0.12499999999999992,
        0.5
      ],
      [
        -0.12499999999999993,
        0.12499999999999992,
        -0.5
      ],
      [
        -0.12499999999999989,
        -0.12500000000000008,
        -0.5
      ],
      [
        0.12500000000000006,
        0.12499999999999997,
        -0.5
      ],
      [
        0.1250000000000001,
        -0.12500000000000003,
        -0.5
      ]
    ],
    "p330": [
      [
        -0.5,
        0.12500000000000008,
        0.12500000000000008
      ],
      [
        -0.5,
        0.12500000000000008,
        -0.1249999999999999
      ],
      [
        -0.5,
        -0.1249999999999999,
        0.12500000000000008
      ],
      [
        -0.5,
        -0.1249999999999999,
        -0.1249999999999999
      ],
      [
        0.5,
        0.1249999999999999,
        0.1249999999999999
      ],
      [
        0.5,
        0.1249999999999999,
        -0.12500000000000008
      ],
      [
        0.5,
        -0.12500000000000008,
        0.1249999999999999
      ],
      [
        0.5,
        -0.12500000000000008,
        -0.12500000000000008
      ]
    ],
    "p331": [
      [
        0.12500000000000006,
        0.5,
        0.12500000000000008
      ],
      [
        0.12500000000000006,
        0.5,
        -0.1249999999999999
      ],
      [
        -0.12499999999999994,
        0.5,
        0.12500000000000008
      ],
      [
        -0.12499999999999994,
        0.5,
        -0.1249999999999999
      ],
      [
        0.12499999999999994,
        -0.5,
        0.1249999999999999
      ],
      [
        0.12499999999999994,
        -0.5,
        -0.12500000000000008
      ],
      [
        -0.12500000000000006,
        -0.5,
        0.1249999999999999
      ],
      [
        -0.12500000000000006,
        -0.5,
        -0.12500000000000008
      ]
    ],
    "p332": [
      [
        0.5,
        -0.12500000000000003,
        0.12500000000000008
      ],
      [
        0.5,
        -0.12500000000000003,
        -0.1249999999999999
      ],
      [
        0.5,
        0.12499999999999997,
        0.12500000000000008
      ],
      [
        0.5,
        0.12499999999999997,
        -0.1249999999999999
      ],
      [
        -0.5,
        -0.12499999999999997,
        0.1249999999999999
      ],
      [
        -0.5,
        -0.12499999999999997,
        -0.12500000000000008
      ],
      [
        -0.5,
        0.12500000000000003,
        0.1249999999999999
      ],
      [
        -0.5,
        0.12500000000000003,
        -0.12500000000000008
      ]
    ],
    "p333": [
      [
        -0.125,
        -0.5,
        0.12500000000000008
      ],
      [
        -0.125,
        -0.5,
        -0.1249999999999999
      ],
      [
        0.125,
        -0.5,
        0.12500000000000008
      ],
      [
        0.125,
        -0.5,
        -0.1249999999999999
      ],
      [
        -0.125,
        0.5,
        0.1249999999999999
      ],
      [
        -0.125,
        0.5,
        -0.12500000000000008
      ],
      [
        0.125,
        0.5,
        0.1249999999999999
      ],
      [
        0.125,
        0.5,
        -0.12500000000000008
      ]
    ],
    "b000": [
      [
        -0.125,
        -0.5,
        -0.125
      ],
      [
        0.125,
        -0.5,
        -0.125
      ],
      [
        -0.125,
        -0.5,
        0.125
      ],
      [
        0.125,
        -0.5,
        0.125
      ],
      [
        0.5,
        0.125,
        -0.125
      ],
      [
        0.5,
        -0.125,
        -0.125
      ],
      [
        0.5,
        0.125,
        0.125
      ],
      [
        0.5,
        -0.125,
        0.125
      ]
    ],
    "b001": [
      [
        -0.5,
        0.12499999999999997,
        -0.125
      ],
      [
        -0.5,
        -0.12500000000000003,
        -0.125
      ],
      [
        -0.5,
        0.12499999999999997,
        0.125
      ],
      [
        -0.5,
        -0.12500000000000003,
        0.125
      ],
      [
        0.12500000000000003,
        -0.5,
        -0.125
      ],
      [
        -0.12499999999999997,
        -0.5,
        -0.125
      ],
      [
        0.12500000000000003,
        -0.5,
        0.125
      ],
      [
        -0.12499999999999997,
        -0.5,
        0.125
      ]
    ],
    "b002": [
      [
        0.12499999999999994,
        0.5,
        -0.125
      ],
      [
        -0.12500000000000006,
        0.5,
        -0.125
      ],
      [
        0.12499999999999994,
        0.5,
        0.125
      ],
      [
        -0.12500000000000006,
        0.5,
        0.125
      ],
      [
        -0.5,
        -0.12500000000000006,
        -0.125
      ],
      [
        -0.5,
        0.12499999999999994,
        -0.125
      ],
      [
        -0.5,
        -0.12500000000000006,
        0.125
      ],
      [
        -0.5,
        0.12499999999999994,
        0.125
      ]
    ],
    "b003": [
      [
        0.5,
        -0.1249999999999999,
        -0.125
      ],
      [
        0.5,
        0.12500000000000008,
        -0.125
      ],
      [
        0.5,
        -0.1249999999999999,
        0.125
      ],
      [
        0.5,
        0.12500000000000008,
        0.125
      ],
      [
        -0.12500000000000008,
        0.5,
        -0.125
      ],
      [
        0.1249999999999999,
        0.5,
        -0.125
      ],
      [
        -0.12500000000000008,
        0.5,
        0.125
      ],
      [
        0.1249999999999999,
        0.5,
        0.125
      ]
    ],
    "b010": [
      [
        0.12499999999999999,
        -0.5,
        -0.125
      ],
      [
        0.125,
        -0.5,
        0.12499999999999999
      ],
      [
        -0.125,
        -0.5,
        -0.12499999999999999
      ],
      [
        -0.12499999999999999,
        -0.5,
        0.125
      ],
      [
        0.12500000000000003,
        0.125,
        0.5
      ],
      [
        0.12500000000000003,
        -0.125,
        0.5
      ],
      [
        -0.12499999999999997,
        0.125,
        0.5
      ],
      [
        -0.12499999999999997,
        -0.125,
        0.5
      ]
    ],
    "b011": [
      [
        -0.5,
        -0.12500000000000003,
        -0.125
      ],
      [
        -0.5,
        -0.12500000000000003,
        0.12499999999999999
      ],
      [
        -0.5,
        0.12499999999999997,
        -0.12499999999999999
      ],
      [
        -0.5,
        0.12499999999999996,
        0.125
      ],
      [
        0.125,
        -0.12500000000000003,
        0.5
      ],
      [
        -0.12499999999999999,
        -0.12500000000000003,
        0.5
      ],
      [
        0.12499999999999999,
        0.12499999999999997,
        0.5
      ],
      [
        -0.125,
        0.12499999999999996,
        0.5
      ]
    ],
    "b012": [
      [
        -0.12500000000000006,
        0.5,
        -0.125
      ],
      [
        -0.12500000000000006,
        0.5,
        0.12499999999999999
      ],
      [
        0.12499999999999994,
        0.5,
        -0.12499999999999999
      ],
      [
        0.12499999999999993,
        0.5,
        0.125
      ],
      [
        -0.12500000000000003,
        -0.12500000000000003,
        0.5
      ],
      [
        -0.12500000000000006,
        0.12499999999999999,
        0.5
      ],
      [
        0.12499999999999999,
        -0.12499999999999999,
        0.5
      ],
      [
        0.12499999999999996,
        0.12500000000000003,
        0.5
      ]
    ],
    "b013": [
      [
        0.5,
        0.12500000000000008,
        -0.125
      ],
      [
        0.5,
        0.1250000000000001,
        0.12499999999999999
      ],
      [
        0.5,
        -0.12499999999999992,
        -0.12499999999999999
      ],
      [
        0.5,
        -0.1249999999999999,
        0.125
      ],
      [
        -0.12500000000000003,
        0.125,
        0.5
      ],
      [
        0.12499999999999997,
        0.12500000000000006,
        0.5
      ],
      [
        -0.12499999999999997,
        -0.12499999999999999,
        0.5
      ],
      [
        0.12500000000000003,
        -0.12499999999999994,
        0.5
      ]
    ],
    "b020": [
      [
        0.12500000000000003,
        -0.5,
        0.12499999999999999
      ],
      [
        -0.12499999999999999,
        -0.5,
        0.12500000000000003
      ],
      [
        0.12499999999999999,
        -0.5,
        -0.12500000000000003
      ],
      [
        -0.12500000000000003,
        -0.5,
        -0.12499999999999999
      ],
      [
        -0.5,
        0.125,
        0.12500000000000006
      ],
      [
        -0.5,
        -0.125,
        0.12500000000000006
      ],
      [
        -0.5,
        0.125,
        -0.12499999999999994
      ],
      [
        -0.5,
        -0.125,
        -0.12499999999999994
      ]
    ],
    "b021": [
      [
        -0.5,
        -0.12500000000000006,
        0.12499999999999999
      ],
      [
        -0.5,
        0.12499999999999996,
        0.12500000000000003
      ],
      [
        -0.5,
        -0.125,
        -0.12500000000000003
      ],
      [
        -0.5,
        0.12499999999999999,
        -0.12499999999999999
      ],
      [
        0.12499999999999997,
        0.5,
        0.12500000000000006
      ],
      [
        -0.12500000000000003,
        0.5,
        0.12500000000000006
      ],
      [
        0.12499999999999997,
        0.5,
        -0.12499999999999994
      ],
      [
        -0.12500000000000003,
        0.5,
        -0.12499999999999994
      ]
    ],
    "b022": [
      [
        -0.12500000000000008,
        0.5,
        0.12499999999999999
      ],
      [
        0.12499999999999993,
        0.5,
        0.12500000000000003
      ],
      [
        -0.12500000000000003,
        0.5,
        -0.12500000000000003
      ],
      [
        0.12499999999999996,
        0.5,
        -0.12499999999999999
      ],
      [
        0.5,
        -0.12499999999999994,
        0.12500000000000006
      ],
      [
        0.5,
        0.12500000000000006,
        0.12500000000000006
      ],
      [
        0.5,
        -0.12499999999999994,
        -0.12499999999999994
      ],
      [
        0.5,
        0.12500000000000006,
        -0.12499999999999994
      ]
    ],
    "b023": [
      [
        0.5,
        0.1250000000000001,
        0.12499999999999999
      ],
      [
        0.5,
        -0.12499999999999989,
        0.12500000000000003
      ],
      [
        0.5,
        0.12500000000000006,
        -0.12500000000000003
      ],
      [
        0.5,
        -0.12499999999999992,
        -0.12499999999999999
      ],
      [
        -0.1249999999999999,
        -0.5,
        0.12500000000000006
      ],
      [
        0.12500000000000008,
        -0.5,
        0.12500000000000006
      ],
      [
        -0.1249999999999999,
        -0.5,
        -0.12499999999999994
      ],
      [
        0.12500000000000008,
        -0.5,
        -0.12499999999999994
      ]
    ],
    "b030": [
      [
        -0.12499999999999997,
        -0.5,
        0.12500000000000003
      ],
      [
        -0.12500000000000003,
        -0.5,
        -0.12499999999999997
      ],
      [
        0.12500000000000003,
        -0.5,
        0.12499999999999997
      ],
      [
        0.12499999999999997,
        -0.5,
        -0.12500000000000003
      ],
      [
        -0.12500000000000008,
        0.125,
        -0.5
      ],
      [
        -0.12500000000000008,
        -0.125,
        -0.5
      ],
      [
        0.1249999999999999,
        0.125,
        -0.5
      ],
      [
        0.1249999999999999,
        -0.125,
        -0.5
      ]
    ],
    "b031": [
      [
        -0.5,
        0.12499999999999994,
        0.12500000000000003
      ],
      [
        -0.5,
        0.12499999999999999,
        -0.12499999999999997
      ],
      [
        -0.5,
        -0.12500000000000006,
        0.12499999999999997
      ],
      [
        -0.5,
        -0.125,
        -0.12500000000000003
      ],
      [
        0.12499999999999999,
        0.1250000000000001,
        -0.5
      ],
      [
        -0.125,
        0.12500000000000008,
        -0.5
      ],
      [
        0.125,
        -0.1249999999999999,
        -0.5
      ],
      [
        -0.12499999999999999,
        -0.12499999999999992,
        -0.5
      ]
    ],
    "b032": [
      [
        0.12499999999999992,
        0.5,
        0.12500000000000003
      ],
      [
        0.12499999999999996,
        0.5,
        -0.12499999999999997
      ],
      [
        -0.12500000000000008,
        0.5,
        0.12499999999999997
      ],
      [
        -0.12500000000000003,
        0.5,
        -0.12500000000000003
      ],
      [
        0.1250000000000001,
        -0.12499999999999999,
        -0.5
      ],
      [
        0.12500000000000008,
        0.12500000000000003,
        -0.5
      ],
      [
        -0.12499999999999989,
        -0.12500000000000003,
        -0.5
      ],
      [
        -0.12499999999999992,
        0.12499999999999999,
        -0.5
      ]
    ],
    "b033": [
      [
        0.5,
        -0.12499999999999989,
        0.12500000000000003
      ],
      [
        0.5,
        -0.12499999999999993,
        -0.12499999999999997
      ],
      [
        0.5,
        0.1250000000000001,
        0.12499999999999997
      ],
      [
        0.5,
        0.12500000000000006,
        -0.12500000000000003
      ],
      [
        -0.12499999999999997,
        -0.1250000000000001,
        -0.5
      ],
      [
        0.12500000000000003,
        -0.12500000000000006,
        -0.5
      ],
      [
        -0.12500000000000003,
        0.12499999999999989,
        -0.5
      ],
      [
        0.12499999999999997,
        0.12499999999999993,
        -0.5
      ]
    ],
    "b100": [
      [
        -0.125,
        -0.12500000000000003,
        0.5
      ],
      [
        0.125,
        -0.12500000000000003,
        0.5
      ],
      [
        -0.125,
        0.12499999999999997,
        0.5
      ],
      [
        0.125,
        0.12499999999999997,
        0.5
      ],
      [
        0.5,
        -0.12499999999999999,
        -0.125
      ],
      [
        0.5,
        -0.125,
        0.12499999999999999
      ],
      [
        0.5,
        0.125,
        -0.12499999999999999
      ],
      [
        0.5,
        0.12499999999999999,
        0.125
      ]
    ],
    "b101": [
      [
        -0.12500000000000003,
        0.12499999999999999,
        0.5
      ],
      [
        -0.12500000000000003,
        -0.125,
        0.5
      ],
      [
        0.12499999999999996,
        0.125,
        0.5
      ],
      [
        0.12499999999999997,
        -0.12499999999999999,
        0.5
      ],
      [
        -0.12499999999999996,
        -0.5,
        -0.125
      ],
      [
        -0.12499999999999997,
        -0.5,
        0.12499999999999999
      ],
      [
        0.12500000000000003,
        -0.5,
        -0.12499999999999999
      ],
      [
        0.12500000000000003,
        -0.5,
        0.125
      ]
    ],
    "b102": [
      [
        0.12499999999999999,
        0.12500000000000006,
        0.5
      ],
      [
        -0.12500000000000003,
        0.12500000000000003,
        0.5
      ],
      [
        0.12500000000000003,
        -0.12499999999999996,
        0.5
      ],
      [
        -0.12499999999999999,
        -0.12499999999999999,
        0.5
      ],
      [
        -0.5,
        0.12499999999999993,
        -0.125
      ],
      [
        -0.5,
        0.12499999999999994,
        0.12499999999999999
      ],
      [
        -0.5,
        -0.12500000000000006,
        -0.12499999999999999
      ],
      [
        -0.5,
        -0.12500000000000006,
        0.125
      ]
    ],
    "b103": [
      [
        0.12500000000000006,
        -0.12499999999999997,
        0.5
      ],
      [
        0.125,
        0.12500000000000003,
        0.5
      ],
      [
        -0.12499999999999994,
        -0.12500000000000003,
        0.5
      ],
      [
        -0.12499999999999999,
        0.12499999999999997,
        0.5
      ],
      [
        0.1249999999999999,
        0.5,
        -0.125
      ],
      [
        0.12499999999999992,
        0.5,
        0.12499999999999999
      ],
      [
        -0.1250000000000001,
        0.5,
        -0.12499999999999999
      ],
      [
        -0.12500000000000008,
        0.5,
        0.125
      ]
    ],
    "b110": [
      [
        -0.5,
        -0.12500000000000003,
        -0.12499999999999997
      ],
      [
        -0.5,
        -0.12500000000000003,
        0.12500000000000003
      ],
      [
        -0.5,
        0.12499999999999997,
        -0.12499999999999997
      ],
      [
        -0.5,
        0.12499999999999997,
        0.12500000000000003
      ],
      [
        0.12500000000000003,
        -0.12499999999999999,
        0.5
      ],
      [
        -0.12499999999999996,
        -0.125,
        0.5
      ],
      [
        0.12500000000000003,
        0.125,
        0.5
      ],
      [
        -0.12499999999999999,
        0.12499999999999999,
        0.5
      ]
    ],
    "b111": [
      [
        -0.12500000000000006,
        0.5,
        -0.12499999999999997
      ],
      [
        -0.12500000000000006,
        0.5,
        0.12500000000000003
      ],
      [
        0.12499999999999994,
        0.5,
        -0.12499999999999997
      ],
      [
        0.12499999999999994,
        0.5,
        0.12500000000000003
      ],
      [
        -0.12499999999999999,
        -0.12500000000000006,
        0.5
      ],
      [
        -0.12500000000000003,
        0.12499999999999996,
        0.5
      ],
      [
        0.12500000000000003,
        -0.125,
        0.5
      ],
      [
        0.12499999999999999,
        0.12499999999999999,
        0.5
      ]
    ],
    "b112": [
      [
        0.5,
        0.12500000000000008,
        -0.12499999999999997
      ],
      [
        0.5,
        0.12500000000000008,
        0.12500000000000003
      ],
      [
        0.5,
        -0.1249999999999999,
        -0.12499999999999997
      ],
      [
        0.5,
        -0.1249999999999999,
        0.12500000000000003
      ],
      [
        -0.12500000000000006,
        0.12499999999999997,
        0.5
      ],
      [
        0.12499999999999994,
        0.12500000000000003,
        0.5
      ],
      [
        -0.125,
        -0.12500000000000003,
        0.5
      ],
      [
        0.125,
        -0.12499999999999997,
        0.5
      ]
    ],
    "b113": [
      [
        0.1250000000000001,
        -0.49999999999999994,
        -0.12499999999999997
      ],
      [
        0.1250000000000001,
        -0.49999999999999994,
        0.12500000000000003
      ],
      [
        -0.12499999999999988,
        -0.5,
        -0.12499999999999997
      ],
      [
        -0.12499999999999988,
        -0.5,
        0.12500000000000003
      ],
      [
        0.12499999999999997,
        0.12500000000000006,
        0.5
      ],
      [
        0.12500000000000003,
        -0.12499999999999994,
        0.5
      ],
      [
        -0.12500000000000003,
        0.125,
        0.5
      ],
      [
        -0.12499999999999997,
        -0.125,
        0.5
      ]
    ],
    "b120": [
      [
        0.12499999999999994,
        -0.12500000000000003,
        -0.5
      ],
      [
        -0.12500000000000006,
        -0.12500000000000003,
        -0.5
      ],
      [
        0.12499999999999994,
        0.12499999999999997,
        -0.5
      ],
      [
        -0.12500000000000006,
        0.12499999999999997,
        -0.5
      ],
      [
        -0.5,
        -0.12499999999999999,
        0.12500000000000006
      ],
      [
        -0.5,
        -0.125,
        -0.12499999999999993
      ],
      [
        -0.5,
        0.125,
        0.12500000000000006
      ],
      [
        -0.5,
        0.12499999999999999,
        -0.12499999999999996
      ]
    ],
    "b121": [
      [
        -0.12500000000000003,
        -0.12499999999999996,
        -0.5
      ],
      [
        -0.12500000000000003,
        0.12500000000000006,
        -0.5
      ],
      [
        0.12499999999999997,
        -0.12499999999999993,
        -0.5
      ],
      [
        0.12499999999999996,
        0.12500000000000006,
        -0.5
      ],
      [
        -0.12500000000000003,
        0.5,
        0.12500000000000006
      ],
      [
        -0.12500000000000003,
        0.5,
        -0.12499999999999993
      ],
      [
        0.12499999999999997,
        0.5,
        0.12500000000000006
      ],
      [
        0.12499999999999996,
        0.5,
        -0.12499999999999996
      ]
    ],
    "b122": [
      [
        -0.12499999999999996,
        0.12500000000000003,
        -0.5
      ],
      [
        0.12500000000000003,
        0.12500000000000006,
        -0.5
      ],
      [
        -0.12499999999999993,
        -0.12499999999999999,
        -0.5
      ],
      [
        0.12500000000000008,
        -0.12499999999999996,
        -0.5
      ],
      [
        0.5,
        0.12500000000000006,
        0.12500000000000006
      ],
      [
        0.5,
        0.12500000000000006,
        -0.12499999999999993
      ],
      [
        0.5,
        -0.12499999999999994,
        0.12500000000000006
      ],
      [
        0.5,
        -0.12499999999999993,
        -0.12499999999999996
      ]
    ],
    "b123": [
      [
        0.125,
        0.12499999999999997,
        -0.5
      ],
      [
        0.12500000000000006,
        -0.12500000000000003,
        -0.5
      ],
      [
        -0.12499999999999999,
        0.12499999999999992,
        -0.5
      ],
      [
        -0.12499999999999994,
        -0.12500000000000008,
        -0.5
      ],
      [
        0.12500000000000008,
        -0.5,
        0.12500000000000006
      ],
      [
        0.1250000000000001,
        -0.5,
        -0.12499999999999993
      ],
      [
        -0.12499999999999992,
        -0.5,
        0.12500000000000006
      ],
      [
        -0.1249999999999999,
        -0.5,
        -0.12499999999999996
      ]
    ],
    "b130": [
      [
        0.5,
        -0.12500000000000003,
        0.1249999999999999
      ],
      [
        0.5,
        -0.12500000000000003,
        -0.12500000000000008
      ],
      [
        0.5,
        0.12499999999999997,
        0.1249999999999999
      ],
      [
        0.5,
        0.12499999999999997,
        -0.12500000000000008
      ],
      [
        -0.12500000000000008,
        -0.12499999999999999,
        -0.5
      ],
      [
        0.12499999999999989,
        -0.125,
        -0.5
      ],
      [
        -0.12500000000000008,
        0.125,
        -0.5
      ],
      [
        0.12499999999999992,
        0.12499999999999999,
        -0.5
      ]
    ],
    "b131": [
      [
        -0.125,
        -0.5,
        0.1249999999999999
      ],
      [
        -0.125,
        -0.5,
        -0.12500000000000008
      ],
      [
        0.125,
        -0.5,
        0.1249999999999999
      ],
      [
        0.125,
        -0.5,
        -0.12500000000000008
      ],
      [
        -0.125,
        0.12500000000000008,
        -0.5
      ],
      [
        -0.125,
        -0.1249999999999999,
        -0.5
      ],
      [
        0.125,
        0.12500000000000008,
        -0.5
      ],
      [
        0.125,
        -0.1249999999999999,
        -0.5
      ]
    ],
    "b132": [
      [
        -0.5,
        0.12499999999999997,
        0.1249999999999999
      ],
      [
        -0.5,
        0.12499999999999997,
        -0.12500000000000008
      ],
      [
        -0.5,
        -0.12500000000000003,
        0.1249999999999999
      ],
      [
        -0.5,
        -0.12500000000000003,
        -0.12500000000000008
      ],
      [
        0.12500000000000008,
        0.125,
        -0.5
      ],
      [
        -0.12499999999999992,
        0.12499999999999999,
        -0.5
      ],
      [
        0.12500000000000008,
        -0.12499999999999999,
        -0.5
      ],
      [
        -0.12499999999999989,
        -0.125,
        -0.5
      ]
    ],
    "b133": [
      [
        0.12499999999999994,
        0.5,
        0.1249999999999999
      ],
      [
        0.12499999999999994,
        0.5,
        -0.12500000000000008
      ],
      [
        -0.12500000000000006,
        0.5,
        0.1249999999999999
      ],
      [
        -0.12500000000000006,
        0.5,
        -0.12500000000000008
      ],
      [
        0.12500000000000003,
        -0.12500000000000006,
        -0.5
      ],
      [
        0.12499999999999999,
        0.12499999999999992,
        -0.5
      ],
      [
        -0.12499999999999999,
        -0.1250000000000001,
        -0.5
      ],
      [
        -0.12500000000000003,
        0.12499999999999989,
        -0.5
      ]
    ],
    "b200": [
      [
        -0.125,
        0.5,
        0.12500000000000006
      ],
      [
        0.125,
        0.5,
        0.12500000000000006
      ],
      [
        -0.125,
        0.5,
        -0.12499999999999994
      ],
      [
        0.125,
        0.5,
        -0.12499999999999994
      ],
      [
        0.5,
        -0.12500000000000003,
        0.12499999999999999
      ],
      [
        0.5,
        0.12499999999999999,
        0.12500000000000003
      ],
      [
        0.5,
        -0.12499999999999999,
        -0.12500000000000003
      ],
      [
        0.5,
        0.12500000000000003,
        -0.12499999999999999
      ]
    ],
    "b201": [
      [
        0.5,
        0.12500000000000003,
        0.12500000000000006
      ],
      [
        0.5,
        -0.12499999999999997,
        0.12500000000000006
      ],
      [
        0.5,
        0.12500000000000003,
        -0.12499999999999994
      ],
      [
        0.5,
        -0.12499999999999997,
        -0.12499999999999994
      ],
      [
        -0.12499999999999999,
        -0.5,
        0.12499999999999999
      ],
      [
        0.125,
        -0.5,
        0.12500000000000003
      ],
      [
        -0.12499999999999996,
        -0.5,
        -0.12500000000000003
      ],
      [
        0.12500000000000006,
        -0.5,
        -0.12499999999999999
      ]
    ],
    "b202": [
      [
        0.12500000000000006,
        -0.5,
        0.12500000000000006
      ],
      [
        -0.12499999999999994,
        -0.5,
        0.12500000000000006
      ],
      [
        0.12500000000000006,
        -0.5,
        -0.12499999999999994
      ],
      [
        -0.12499999999999994,
        -0.5,
        -0.12499999999999994
      ],
      [
        -0.5,
        0.12499999999999996,
        0.12499999999999999
      ],
      [
        -0.5,
        -0.12500000000000003,
        0.12500000000000003
      ],
      [
        -0.5,
        0.12499999999999993,
        -0.12500000000000003
      ],
      [
        -0.5,
        -0.12500000000000008,
        -0.12499999999999999
      ]
    ],
    "b203": [
      [
        -0.5,
        -0.12500000000000008,
        0.12500000000000006
      ],
      [
        -0.5,
        0.1249999999999999,
        0.12500000000000006
      ],
      [
        -0.5,
        -0.12500000000000008,
        -0.12499999999999994
      ],
      [
        -0.5,
        0.1249999999999999,
        -0.12499999999999994
      ],
      [
        0.12499999999999992,
        0.5,
        0.12499999999999999
      ],
      [
        -0.12500000000000006,
        0.5,
        0.12500000000000003
      ],
      [
        0.12499999999999989,
        0.5,
        -0.12500000000000003
      ],
      [
        -0.1250000000000001,
        0.5,
        -0.12499999999999999
      ]
    ],
    "b210": [
      [
        -0.12500000000000006,
        0.5,
        -0.12499999999999999
      ],
      [
        -0.12500000000000006,
        0.5,
        0.125
      ],
      [
        0.12499999999999993,
        0.5,
        -0.125
      ],
      [
        0.12499999999999994,
        0.5,
        0.12499999999999999
      ],
      [
        -0.12499999999999996,
        -0.12500000000000003,
        0.5
      ],
      [
        -0.12499999999999999,
        0.12499999999999999,
        0.5
      ],
      [
        0.12500000000000006,
        -0.12499999999999999,
        0.5
      ],
      [
        0.12500000000000003,
        0.12500000000000003,
        0.5
      ]
    ],
    "b211": [
      [
        0.5,
        0.1250000000000001,
        -0.12499999999999999
      ],
      [
        0.5,
        0.12500000000000008,
        0.125
      ],
      [
        0.5,
        -0.1249999999999999,
        -0.125
      ],
      [
        0.5,
        -0.12499999999999992,
        0.12499999999999999
      ],
      [
        -0.12500000000000003,
        0.12499999999999994,
        0.5
      ],
      [
        0.12499999999999997,
        0.12499999999999999,
        0.5
      ],
      [
        -0.12499999999999997,
        -0.12500000000000006,
        0.5
      ],
      [
        0.12500000000000003,
        -0.125,
        0.5
      ]
    ],
    "b212": [
      [
        0.12500000000000014,
        -0.49999999999999994,
        -0.12499999999999999
      ],
      [
        0.1250000000000001,
        -0.49999999999999994,
        0.125
      ],
      [
        -0.12499999999999988,
        -0.5,
        -0.125
      ],
      [
        -0.12499999999999989,
        -0.5,
        0.12499999999999999
      ],
      [
        0.12499999999999994,
        0.12500000000000003,
        0.5
      ],
      [
        0.125,
        -0.12499999999999997,
        0.5
      ],
      [
        -0.12500000000000006,
        0.12499999999999997,
        0.5
      ],
      [
        -0.125,
        -0.12500000000000003,
        0.5
      ]
    ],
    "b213": [
      [
        -0.49999999999999994,
        -0.12500000000000017,
        -0.12499999999999999
      ],
      [
        -0.49999999999999994,
        -0.12500000000000014,
        0.125
      ],
      [
        -0.5,
        0.12499999999999983,
        -0.125
      ],
      [
        -0.5,
        0.12499999999999986,
        0.12499999999999999
      ],
      [
        0.12500000000000003,
        -0.12499999999999993,
        0.5
      ],
      [
        -0.12499999999999996,
        -0.125,
        0.5
      ],
      [
        0.12499999999999996,
        0.12500000000000006,
        0.5
      ],
      [
        -0.12500000000000003,
        0.12499999999999999,
        0.5
      ]
    ],
    "b220": [
      [
        0.12499999999999999,
        0.5,
        -0.12500000000000008
      ],
      [
        -0.12500000000000003,
        0.5,
        -0.12500000000000006
      ],
      [
        0.12500000000000003,
        0.5,
        0.12499999999999992
      ],
      [
        -0.12499999999999999,
        0.5,
        0.12499999999999996
      ],
      [
        -0.5,
        -0.12500000000000003,
        -0.12499999999999992
      ],
      [
        -0.5,
        0.12499999999999999,
        -0.12499999999999996
      ],
      [
        -0.5,
        -0.12499999999999999,
        0.12500000000000008
      ],
      [
        -0.5,
        0.12500000000000003,
        0.12500000000000006
      ]
    ],
    "b221": [
      [
        0.5,
        -0.12499999999999996,
        -0.12500000000000008
      ],
      [
        0.5,
        0.12500000000000006,
        -0.12500000000000006
      ],
      [
        0.5,
        -0.12499999999999999,
        0.12499999999999992
      ],
      [
        0.5,
        0.125,
        0.12499999999999996
      ],
      [
        -0.12500000000000006,
        0.5,
        -0.12499999999999992
      ],
      [
        0.12499999999999996,
        0.5,
        -0.12499999999999996
      ],
      [
        -0.125,
        0.5,
        0.12500000000000008
      ],
      [
        0.12499999999999999,
        0.5,
        0.12500000000000006
      ]
    ],
    "b222": [
      [
        -0.12499999999999993,
        -0.5,
        -0.12500000000000008
      ],
      [
        0.12500000000000008,
        -0.5,
        -0.12500000000000006
      ],
      [
        -0.12499999999999996,
        -0.5,
        0.12499999999999992
      ],
      [
        0.12500000000000003,
        -0.5,
        0.12499999999999996
      ],
      [
        0.5,
        0.12500000000000008,
        -0.12499999999999992
      ],
      [
        0.5,
        -0.12499999999999993,
        -0.12499999999999996
      ],
      [
        0.5,
        0.12500000000000003,
        0.12500000000000008
      ],
      [
        0.5,
        -0.12499999999999996,
        0.12500000000000006
      ]
    ],
    "b223": [
      [
        -0.5,
        0.12499999999999989,
        -0.12500000000000008
      ],
      [
        -0.5,
        -0.1250000000000001,
        -0.12500000000000006
      ],
      [
        -0.5,
        0.12499999999999992,
        0.12499999999999992
      ],
      [
        -0.5,
        -0.12500000000000006,
        0.12499999999999996
      ],
      [
        0.1250000000000001,
        -0.5,
        -0.12499999999999992
      ],
      [
        -0.12499999999999989,
        -0.5,
        -0.12499999999999996
      ],
      [
        0.12500000000000006,
        -0.5,
        0.12500000000000008
      ],
      [
        -0.12499999999999992,
        -0.5,
        0.12500000000000006
      ]
    ],
    "b230": [
      [
        0.12500000000000008,
        0.5,
        0.12499999999999997
      ],
      [
        0.12500000000000003,
        0.5,
        -0.12500000000000003
      ],
      [
        -0.12499999999999992,
        0.5,
        0.12500000000000003
      ],
      [
        -0.12499999999999996,
        0.5,
        -0.12499999999999997
      ],
      [
        0.12499999999999989,
        -0.12500000000000003,
        -0.5
      ],
      [
        0.12499999999999992,
        0.12499999999999999,
        -0.5
      ],
      [
        -0.1250000000000001,
        -0.12499999999999999,
        -0.5
      ],
      [
        -0.12500000000000008,
        0.12500000000000003,
        -0.5
      ]
    ],
    "b231": [
      [
        0.5,
        -0.12500000000000006,
        0.12499999999999997
      ],
      [
        0.5,
        -0.125,
        -0.12500000000000003
      ],
      [
        0.5,
        0.12499999999999994,
        0.12500000000000003
      ],
      [
        0.5,
        0.12499999999999999,
        -0.12499999999999997
      ],
      [
        -0.125,
        -0.1249999999999999,
        -0.5
      ],
      [
        0.12499999999999999,
        -0.12499999999999992,
        -0.5
      ],
      [
        -0.12499999999999999,
        0.1250000000000001,
        -0.5
      ],
      [
        0.125,
        0.12500000000000008,
        -0.5
      ]
    ],
    "b232": [
      [
        -0.12500000000000003,
        -0.5,
        0.12499999999999997
      ],
      [
        -0.12499999999999997,
        -0.5,
        -0.12500000000000003
      ],
      [
        0.12499999999999997,
        -0.5,
        0.12500000000000003
      ],
      [
        0.12500000000000003,
        -0.5,
        -0.12499999999999997
      ],
      [
        -0.1249999999999999,
        0.125,
        -0.5
      ],
      [
        -0.1249999999999999,
        -0.125,
        -0.5
      ],
      [
        0.12500000000000008,
        0.125,
        -0.5
      ],
      [
        0.12500000000000008,
        -0.125,
        -0.5
      ]
    ],
    "b233": [
      [
        -0.5,
        0.12499999999999999,
        0.12499999999999997
      ],
      [
        -0.5,
        0.12499999999999994,
        -0.12500000000000003
      ],
      [
        -0.5,
        -0.125,
        0.12500000000000003
      ],
      [
        -0.5,
        -0.12500000000000006,
        -0.12499999999999997
      ],
      [
        0.12499999999999999,
        0.12499999999999992,
        -0.5
      ],
      [
        -0.125,
        0.1249999999999999,
        -0.5
      ],
      [
        0.125,
        -0.12500000000000008,
        -0.5
      ],
      [
        -0.12499999999999999,
        -0.1250000000000001,
        -0.5
      ]
    ],
    "b300": [
      [
        -0.125,
        0.12500000000000008,
        -0.5
      ],
      [
        0.125,
        0.12500000000000008,
        -0.5
      ],
      [
        -0.125,
        -0.1249999999999999,
        -0.5
      ],
      [
        0.125,
        -0.1249999999999999,
        -0.5
      ],
      [
        0.5,
        0.12499999999999997,
        0.12500000000000003
      ],
      [
        0.5,
        0.12500000000000003,
        -0.12499999999999997
      ],
      [
        0.5,
        -0.12500000000000003,
        0.12499999999999997
      ],
      [
        0.5,
        -0.12499999999999997,
        -0.12500000000000003
      ]
    ],
    "b301": [
      [
        0.12500000000000008,
        0.125,
        -0.5
      ],
      [
        0.1250000000000001,
        -0.12499999999999999,
        -0.5
      ],
      [
        -0.12499999999999992,
        0.12499999999999999,
        -0.5
      ],
      [
        -0.1249999999999999,
        -0.125,
        -0.5
      ],
      [
        0.125,
        -0.5,
        0.12500000000000003
      ],
      [
        0.12500000000000006,
        -0.5,
        -0.12499999999999997
      ],
      [
        -0.12499999999999999,
        -0.5,
        0.12499999999999997
      ],
      [
        -0.12499999999999994,
        -0.5,
        -0.12500000000000003
      ]
    ],
    "b302": [
      [
        0.12500000000000003,
        -0.12500000000000008,
        -0.5
      ],
      [
        -0.12499999999999999,
        -0.1250000000000001,
        -0.5
      ],
      [
        0.12499999999999999,
        0.12499999999999992,
        -0.5
      ],
      [
        -0.12500000000000003,
        0.12499999999999989,
        -0.5
      ],
      [
        -0.5,
        -0.12500000000000003,
        0.12500000000000003
      ],
      [
        -0.5,
        -0.12500000000000008,
        -0.12499999999999997
      ],
      [
        -0.5,
        0.12499999999999996,
        0.12499999999999997
      ],
      [
        -0.5,
        0.12499999999999992,
        -0.12500000000000003
      ]
    ],
    "b303": [
      [
        -0.12500000000000006,
        -0.12500000000000003,
        -0.5
      ],
      [
        -0.1250000000000001,
        0.12499999999999997,
        -0.5
      ],
      [
        0.12499999999999993,
        -0.12499999999999997,
        -0.5
      ],
      [
        0.12499999999999989,
        0.12500000000000003,
        -0.5
      ],
      [
        -0.12500000000000006,
        0.5,
        0.12500000000000003
      ],
      [
        -0.1250000000000001,
        0.5,
        -0.12499999999999997
      ],
      [
        0.12499999999999993,
        0.5,
        0.12499999999999997
      ],
      [
        0.12499999999999989,
        0.5,
        -0.12500000000000003
      ]
    ],
    "b310": [
      [
        0.5,
        0.12500000000000008,
        -0.12500000000000003
      ],
      [
        0.5,
        0.12500000000000008,
        0.12499999999999997
      ],
      [
        0.5,
        -0.1249999999999999,
        -0.12500000000000003
      ],
      [
        0.5,
        -0.1249999999999999,
        0.12499999999999997
      ],
      [
        -0.125,
        0.12499999999999997,
        0.5
      ],
      [
        0.125,
        0.12500000000000003,
        0.5
      ],
      [
        -0.12499999999999994,
        -0.12500000000000003,
        0.5
      ],
      [
        0.12500000000000006,
        -0.12499999999999997,
        0.5
      ]
    ],
    "b311": [
      [
        0.1250000000000001,
        -0.49999999999999994,
        -0.12500000000000003
      ],
      [
        0.1250000000000001,
        -0.49999999999999994,
        0.12499999999999997
      ],
      [
        -0.12499999999999988,
        -0.5,
        -0.12500000000000003
      ],
      [
        -0.12499999999999988,
        -0.5,
        0.12499999999999997
      ],
      [
        0.12499999999999997,
        0.125,
        0.5
      ],
      [
        0.12500000000000003,
        -0.125,
        0.5
      ],
      [
        -0.12500000000000003,
        0.12499999999999994,
        0.5
      ],
      [
        -0.12499999999999997,
        -0.12500000000000006,
        0.5
      ]
    ],
    "b312": [
      [
        -0.49999999999999994,
        -0.12500000000000017,
        -0.12500000000000003
      ],
      [
        -0.49999999999999994,
        -0.12500000000000017,
        0.12499999999999997
      ],
      [
        -0.5,
        0.12499999999999985,
        -0.12500000000000003
      ],
      [
        -0.5,
        0.12499999999999985,
        0.12499999999999997
      ],
      [
        0.125,
        -0.12499999999999996,
        0.5
      ],
      [
        -0.12499999999999999,
        -0.12500000000000003,
        0.5
      ],
      [
        0.12499999999999993,
        0.12500000000000003,
        0.5
      ],
      [
        -0.12500000000000006,
        0.12499999999999996,
        0.5
      ]
    ],
    "b313": [
      [
        -0.1250000000000002,
        0.49999999999999994,
        -0.12500000000000003
      ],
      [
        -0.1250000000000002,
        0.49999999999999994,
        0.12499999999999997
      ],
      [
        0.12499999999999982,
        0.5,
        -0.12500000000000003
      ],
      [
        0.12499999999999982,
        0.5,
        0.12499999999999997
      ],
      [
        -0.12499999999999996,
        -0.12500000000000003,
        0.5
      ],
      [
        -0.12500000000000006,
        0.12499999999999999,
        0.5
      ],
      [
        0.12500000000000006,
        -0.12499999999999993,
        0.5
      ],
      [
        0.12499999999999996,
        0.12500000000000008,
        0.5
      ]
    ],
    "b320": [
      [
        0.12500000000000006,
        0.12500000000000008,
        0.5
      ],
      [
        -0.12499999999999994,
        0.12500000000000008,
        0.5
      ],
      [
        0.12500000000000006,
        -0.1249999999999999,
        0.5
      ],
      [
        -0.12499999999999994,
        -0.1249999999999999,
        0.5
      ],
      [
        -0.5,
        0.12499999999999997,
        -0.12499999999999997
      ],
      [
        -0.5,
        0.12500000000000003,
        0.12500000000000003
      ],
      [
        -0.5,
        -0.12500000000000003,
        -0.12499999999999992
      ],
      [
        -0.5,
        -0.12499999999999997,
        0.12500000000000008
      ]
    ],
    "b321": [
      [
        0.1250000000000001,
        -0.12500000000000006,
        0.5
      ],
      [
        0.12500000000000008,
        0.12499999999999996,
        0.5
      ],
      [
        -0.1249999999999999,
        -0.12500000000000006,
        0.5
      ],
      [
        -0.12499999999999992,
        0.12499999999999993,
        0.5
      ],
      [
        0.12499999999999994,
        0.5,
        -0.12499999999999997
      ],
      [
        0.12499999999999999,
        0.5,
        0.12500000000000003
      ],
      [
        -0.12500000000000006,
        0.5,
        -0.12499999999999992
      ],
      [
        -0.125,
        0.5,
        0.12500000000000008
      ]
    ],
    "b322": [
      [
        -0.12500000000000003,
        -0.1250000000000001,
        0.5
      ],
      [
        0.12499999999999996,
        -0.12500000000000008,
        0.5
      ],
      [
        -0.12500000000000008,
        0.12499999999999989,
        0.5
      ],
      [
        0.12499999999999993,
        0.12499999999999992,
        0.5
      ],
      [
        0.5,
        -0.12499999999999992,
        -0.12499999999999997
      ],
      [
        0.5,
        -0.12499999999999996,
        0.12500000000000003
      ],
      [
        0.5,
        0.12500000000000008,
        -0.12499999999999992
      ],
      [
        0.5,
        0.12500000000000003,
        0.12500000000000008
      ]
    ],
    "b323": [
      [
        -0.1250000000000001,
        0.12500000000000003,
        0.5
      ],
      [
        -0.12500000000000006,
        -0.12499999999999997,
        0.5
      ],
      [
        0.12499999999999989,
        0.12500000000000008,
        0.5
      ],
      [
        0.12499999999999993,
        -0.12499999999999992,
        0.5
      ],
      [
        -0.12499999999999989,
        -0.5,
        -0.12499999999999997
      ],
      [
        -0.12499999999999993,
        -0.5,
        0.12500000000000003
      ],
      [
        0.1250000000000001,
        -0.5,
        -0.12499999999999992
      ],
      [
        0.12500000000000006,
        -0.5,
        0.12500000000000008
      ]
    ],
    "b330": [
      [
        -0.5,
        0.12500000000000008,
        0.12500000000000008
      ],
      [
        -0.5,
        0.12500000000000008,
        -0.1249999999999999
      ],
      [
        -0.5,
        -0.1249999999999999,
        0.12500000000000008
      ],
      [
        -0.5,
        -0.1249999999999999,
        -0.1249999999999999
      ],
      [
        0.12499999999999993,
        0.12499999999999997,
        -0.5
      ],
      [
        -0.12500000000000006,
        0.12500000000000003,
        -0.5
      ],
      [
        0.12499999999999988,
        -0.12500000000000003,
        -0.5
      ],
      [
        -0.1250000000000001,
        -0.12499999999999997,
        -0.5
      ]
    ],
    "b331": [
      [
        0.12500000000000006,
        0.5,
        0.12500000000000008
      ],
      [
        0.12500000000000006,
        0.5,
        -0.1249999999999999
      ],
      [
        -0.12499999999999994,
        0.5,
        0.12500000000000008
      ],
      [
        -0.12499999999999994,
        0.5,
        -0.1249999999999999
      ],
      [
        0.12499999999999999,
        -0.12499999999999992,
        -0.5
      ],
      [
        0.12500000000000003,
        0.12500000000000006,
        -0.5
      ],
      [
        -0.12500000000000003,
        -0.12499999999999989,
        -0.5
      ],
      [
        -0.12499999999999999,
        0.1250000000000001,
        -0.5
      ]
    ],
    "b332": [
      [
        0.5,
        -0.12500000000000003,
        0.12500000000000008
      ],
      [
        0.5,
        -0.12500000000000003,
        -0.1249999999999999
      ],
      [
        0.5,
        0.12499999999999997,
        0.12500000000000008
      ],
      [
        0.5,
        0.12499999999999997,
        -0.1249999999999999
      ],
      [
        -0.12499999999999992,
        -0.12499999999999999,
        -0.5
      ],
      [
        0.12500000000000008,
        -0.125,
        -0.5
      ],
      [
        -0.12499999999999989,
        0.125,
        -0.5
      ],
      [
        0.12500000000000008,
        0.12499999999999999,
        -0.5
      ]
    ],
    "b333": [
      [
        -0.125,
        -0.5,
        0.12500000000000008
      ],
      [
        -0.125,
        -0.5,
        -0.1249999999999999
      ],
      [
        0.125,
        -0.5,
        0.12500000000000008
      ],
      [
        0.125,
        -0.5,
        -0.1249999999999999
      ],
      [
        -0.125,
        0.1249999999999999,
        -0.5
      ],
      [
        -0.125,
        -0.12500000000000008,
        -0.5
      ],
      [
        0.125,
        0.1249999999999999,
        -0.5
      ],
      [
        0.125,
        -0.12500000000000008,
        -0.5
      ]
    ]
  },
  "equiv_map": {
    ".000": [
      ".001",
      ".002",
      ".003",
      ".010",
      ".011",
      ".012",
      ".013",
      ".020",
      ".021",
      ".022",
      ".023",
      ".030",
      ".031",
      ".032",
      ".033",
      ".100",
      ".101",
      ".102",
      ".103",
      ".110",
      ".111",
      ".112",
      ".113",
      ".120",
      ".121",
      ".122",
      ".123",
      ".130",
      ".131",
      ".132",
      ".133",
      ".200",
      ".201",
      ".202",
      ".203",
      ".210",
      ".211",
      ".212",
      ".213",
      ".220",
      ".221",
      ".222",
      ".223",
      ".230",
      ".231",
      ".232",
      ".233",
